const model = {
  "neuronCounts": [
    5,
    10,
    8
  ],
  "classes": [
    "car",
    "fish",
    "house",
    "tree",
    "bicycle",
    "guitar",
    "pencil",
    "clock"
  ],
  "network": {
    "levels": [
      {
        "weights": [
          [
            -1.6709130427860084e-156,
            1.6383801194466103,
            -0.09742762174178393,
            -1.1144590544369986,
            -0.439008347074721,
            -1.7768182111731348e-05,
            1.2329560790435794,
            1.0261387099825499e-137,
            -0.7891331233200832,
            0.03070098480967237
          ],
          [
            5.022423869224965e-157,
            0.10989078969492327,
            -0.03657800759487993,
            2.6006512959726606,
            -0.5988465969854759,
            0.12636571218351783,
            -2.174777755389123,
            3.903466375645504e-163,
            1.7751142151552173,
            -1.0554551015272025
          ],
          [
            -3.21749399965457e-105,
            1.8106677337905968,
            -1.4066039235679677e-12,
            -1.9273561217746358,
            0.33666895555147036,
            0.35400527797827214,
            -2.5695742000840305,
            2.995922181996369e-79,
            1.3820733418654834,
            2.895338805988674
          ],
          [
            -7.43313651452143e-88,
            -2.014048073659393,
            0.4164444590390364,
            1.2170741549927737,
            0.13751824555628558,
            -0.0006195281628814683,
            2.3141969748609412,
            -3.975216370427204e-99,
            -1.381691332798976,
            -1.0340980190266449
          ],
          [
            -1.51081502080477e-75,
            2.8557703373203345,
            -0.02521823759255749,
            1.810049041829156,
            -0.3967563796318007,
            -0.006559632824063602,
            1.8819637882967768,
            -1.1196727844327122e-126,
            -1.1275235893310944,
            0.2861420622396326
          ]
        ],
        "biases": [
          -0.6079580527462108,
          1.1762476095737355,
          -0.41229126098298635,
          -0.29207193628777145,
          -0.12191846515245382,
          -0.5729665346652167,
          0.3462802890941634,
          -0.44685693422048145,
          1.3113402291235745,
          1.6387561459718107
        ],
        "inputs": [
          0,
          0,
          0,
          0,
          0
        ],
        "outputs": [
          0,
          0,
          0,
          0,
          0,
          0,
          0,
          0,
          0,
          0
        ]
      },
      {
        "weights": [
          [
            -2.530394226906945e-94,
            -1.0503639369554054e-157,
            -3.479574069885619e-132,
            -1.05541241566412e-157,
            1.4895193380301456e-86,
            -2.6813094623505404e-168,
            8.8814500391397e-139,
            9.068122958957085e-172
          ],
          [
            0.8674567848731475,
            -0.4369303581890684,
            -0.21501212319181864,
            -1.167293950902161,
            0.23720989994733535,
            2.333532941374956,
            0.9975325988014714,
            -3.195983746491181
          ],
          [
            6.567519645796614e-07,
            -3.0624933035998715e-12,
            1.8513792888565313e-13,
            -1.731099229952532e-15,
            3.9348016077572435e-10,
            2.202049403325085e-12,
            2.204466075828136e-11,
            -0.005098000175688178
          ],
          [
            -2.272488597557281,
            -1.7407270710777447,
            1.1294850749918248,
            2.2125823868628975,
            -0.5906500763836079,
            -0.10310489908503001,
            -1.536255361882537,
            2.027377423128993
          ],
          [
            -0.04362822107125619,
            0.0011989612977315882,
            -0.035369847660263146,
            -0.006699837239308702,
            0.02382109480368944,
            0.00012232446545057884,
            -0.3690102634158206,
            0.016705166521645082
          ],
          [
            -1.9283004868002642e-41,
            -6.163064039542995e-87,
            4.840480726412482e-51,
            9.094220844263085e-100,
            -2.739046126583766e-70,
            -8.395572896494731e-71,
            -4.553877139411695e-12,
            -5.638933080733969e-47
          ],
          [
            1.49530149110655,
            0.6731755907699079,
            0.2256010024250786,
            -0.5535654692319936,
            1.6335522245913259,
            -1.5374174500942082,
            -3.1472398937278183,
            1.2891111184723174
          ],
          [
            -3.9087987847884794e-119,
            -5.348789203235907e-91,
            5.694204018169207e-128,
            -1.414896038350123e-97,
            2.5106191854620432e-82,
            7.757273101557652e-84,
            -4.785821747987094e-84,
            3.7745766849057315e-119
          ],
          [
            -3.0639621522966896,
            0.7980959466268646,
            -0.25369284171771755,
            1.1937788364056054,
            -3.2971142417889414,
            1.1814801756975368,
            2.6590906408205908,
            -2.545624280704297
          ],
          [
            -0.007949752217921035,
            1.7715487360090327,
            -0.9738241134575201,
            -3.628962400211145,
            -0.4184184438486065,
            0.37031478526938294,
            1.9780913725673095,
            -2.538312367588998
          ]
        ],
        "biases": [
          0.049715283208014015,
          0.29161621024559337,
          -0.5021981642225123,
          -0.1471146452354784,
          -0.9084770361802191,
          -0.6201022080722239,
          0.1694126703974869,
          -0.3857259738404537
        ],
        "inputs": [
          0,
          0,
          0,
          0,
          0,
          0,
          0,
          0,
          0,
          0
        ],
        "outputs": [
          0,
          0,
          0,
          0,
          0,
          0,
          0,
          0
        ]
      }
    ]
  }
}